svm_type c_svc
kernel_type rbf
gamma 0.0078125
nr_class 2
total_sv 20
rho 0.000699112
label 1 2
nr_sv 10 10
SV
0.03125 1:610 2:560 3:671 4:559 5:653 6:541 7:690 8:674 9:742 10:694 11:600 12:638 13:699 14:650 15:571 16:659 
0.03125 1:610 2:560 3:671 4:558 5:653 6:540 7:691 8:674 9:743 10:693 11:599 12:638 13:698 14:650 15:572 16:659 
0.03125 1:610 2:560 3:671 4:558 5:654 6:540 7:692 8:673 9:742 10:694 11:599 12:639 13:697 14:651 15:571 16:658 
0.03125 1:610 2:561 3:671 4:559 5:653 6:540 7:692 8:675 9:744 10:693 11:599 12:638 13:698 14:651 15:572 16:658 
0.03125 1:610 2:561 3:672 4:558 5:652 6:540 7:691 8:674 9:742 10:694 11:600 12:638 13:699 14:651 15:571 16:658 
0.03125 1:610 2:561 3:671 4:559 5:653 6:539 7:691 8:675 9:742 10:693 11:600 12:637 13:698 14:651 15:571 16:659 
0.03125 1:610 2:560 3:670 4:558 5:652 6:540 7:692 8:674 9:743 10:694 11:599 12:638 13:699 14:651 15:571 16:659 
0.03125 1:610 2:560 3:671 4:559 5:653 6:540 7:691 8:674 9:743 10:694 11:599 12:638 13:699 14:650 15:572 16:659 
0.03125 1:610 2:559 3:671 4:558 5:654 6:540 7:692 8:675 9:743 10:694 11:599 12:638 13:698 14:650 15:570 16:659 
0.03125 1:611 2:560 3:671 4:559 5:653 6:540 7:691 8:674 9:743 10:694 11:600 12:638 13:698 14:651 15:572 16:658 
-0.03125 1:608 2:560 3:663 4:424 5:653 6:536 7:700 8:666 9:739 10:714 11:569 12:639 13:695 14:648 15:553 16:676 
-0.03125 1:607 2:561 3:662 4:423 5:652 6:536 7:698 8:666 9:740 10:713 11:569 12:638 13:694 14:649 15:553 16:675 
-0.03125 1:608 2:561 3:662 4:423 5:652 6:537 7:699 8:665 9:740 10:712 11:570 12:638 13:694 14:647 15:553 16:675 
-0.03125 1:608 2:561 3:662 4:424 5:652 6:536 7:698 8:666 9:739 10:713 11:569 12:638 13:694 14:648 15:553 16:674 
-0.03125 1:608 2:561 3:662 4:423 5:652 6:537 7:699 8:667 9:739 10:713 11:569 12:639 13:694 14:649 15:554 16:675 
-0.03125 1:608 2:562 3:663 4:423 5:653 6:536 7:699 8:665 9:739 10:713 11:570 12:638 13:694 14:649 15:553 16:676 
-0.03125 1:608 2:562 3:662 4:424 5:652 6:536 7:699 8:665 9:739 10:713 11:569 12:638 13:694 14:649 15:554 16:675 
-0.03125 1:608 2:561 3:662 4:424 5:653 6:537 7:698 8:665 9:739 10:713 11:570 12:639 13:693 14:648 15:553 16:675 
-0.03125 1:608 2:562 3:662 4:424 5:653 6:537 7:698 8:665 9:740 10:712 11:569 12:639 13:694 14:648 15:554 16:675 
-0.03125 1:608 2:562 3:662 4:424 5:653 6:537 7:698 8:665 9:740 10:712 11:569 12:639 13:694 14:648 15:554 16:675 
